
\data\
ngram 1=210
ngram 2=374
ngram 3=13

\1-grams:
-1.580821	</s>
-99	<s>	-0.03372741
-1.622214	A	-0.0896275
-2.622214	ABLE	-0.07264765
-2.622214	ABOUT	-0.07788649
-2.622214	ABSOLUTE	-0.07892672
-2.145093	AFTER	-0.1104406
-2.622214	ALL	-0.06197649
-2.145093	ALLEN	-0.05981044
-2.622214	ALLEN'S	-0.07892672
-2.622214	ALREADY	-0.07788649
-2.622214	AN	-0.07892672
-1.719124	AND	-0.01041865
-2.622214	ANOTHER	-0.07788649
-2.622214	ANY	-0.07892672
-2.622214	ANYTHING	-0.07475077
-2.622214	APPEAR	-0.07159226
-2.622214	APPLIED	-0.07264765
-2.622214	ARE	-0.07892672
-2.145093	AS	-0.0737005
-2.145093	AT	-0.06734485
-2.622214	AUGURED	-0.07788649
-1.777116	BE	-0.1047538
-2.622214	BEFORE	-0.07579853
-2.622214	BEING	-0.06947374
-2.622214	BELIEVE	-0.05872333
-2.622214	BROKE	-0.07788649
-2.622214	BROUGHT	-0.06947374
-2.145093	BUT	-0.06413181
-2.020154	CATHERINE	-0.07159226
-2.622214	CATHERINE'S	-0.07892672
-2.622214	CAUGHT	-0.07892672
-2.622214	CHAPTER	-0.07788649
-2.622214	CLEAR	-0.07370049
-2.321184	CLOCK	-0.07788651
-2.622214	CLOUDS	-0.07684377
-2.622214	COME	-0.07264765
-2.622214	COMES	-0.07579853
-2.622214	COMFORTABLE	-0.0684106
-2.321184	CONTINUED	-0.1476383
-2.622214	DARE	-0.07892672
-2.321184	DAY	-0.07264767
-2.145093	DEAR	-0.1006808
-2.622214	DECLINED	-0.07892672
-2.622214	DESPAIR	-0.07892672
-2.622214	DESPONDING	-0.07892672
-2.321184	DIRT	-0.0737005
-2.622214	DIRTY	-0.07684377
-2.622214	DISLIKE	-0.05872333
-2.020154	DO	-0.06947375
-2.622214	DOES	-0.07892672
-2.622214	DOUBT	-0.07475077
-2.622214	EACH	-0.07892672
-2.622214	EFFORTS	-0.07264765
-2.321184	ELEVEN	-0.06089482
-2.622214	ENTIRELY	-0.07684377
-2.622214	EVERY	-0.07788649
-2.622214	EVERYTHING	-0.07788649
-2.622214	EYE	-0.07159226
-2.321184	FAST	-0.1476383
-2.321184	FASTER	-0.06947376
-2.622214	FAVOURABLE	-0.07264765
-2.145093	FEW	-0.07684378
-2.622214	FINE	-0.07788649
-2.321184	FIVE	-0.1465956
-2.145093	FOR	-0.05324667
-2.622214	FOUR	-0.07892672
-2.622214	FRIEND	-0.07475077
-2.321184	FROM	-0.05544564
-2.145093	GIVE	-0.09737817
-2.622214	GIVING	-0.07892672
-2.321184	GO	-0.07684378
-2.622214	GOES	-0.07684377
-2.321184	GREATCOAT	-0.06627648
-2.020154	HAD	-0.07159226
-2.622214	HATE	-0.06197649
-2.020154	HE	-0.06520547
-2.321184	HEAVY	-0.06413182
-2.145093	HER	-0.07264766
-2.622214	HERE	-0.07684377
-2.622214	HIS	-0.07788649
-2.622214	HOLD	-0.07370049
-2.622214	HOPE	-0.07892672
-2.622214	HOPELESS	-0.0684106
-2.321184	HOW	-0.04546142
-2.622214	HOWEVER	-0.06947374
-1.543033	I	-0.08210573
-2.020154	IF	-0.05768415
-1.923244	IN	-0.09275962
-2.622214	INDEED	-0.07579853
-2.321184	IS	-0.07788651
-1.321184	IT	-0.03871291
-2.622214	ITS	-0.07892672
-2.622214	JUST	-0.06197649
-2.622214	KEEP	-0.07788649
-2.622214	KEEPS	-0.07788649
-2.622214	KEPT	-0.07579853
-2.622214	KNOW	-0.07788649
-2.622214	LIGHTER	-0.07684377
-2.622214	LITTLE	-0.07892672
-2.622214	LOOKING	-0.07788649
-2.622214	LOOKS	-0.06947374
-2.622214	MAKING	-0.07788649
-2.622214	MATTER	-0.07684377
-2.145093	MAY	-0.07475078
-2.622214	ME	-0.07892672
-2.321184	MIND	-0.1476383
-2.145093	MINUTES	-0.06520546
-2.145093	MISSUS	-0.1210337
-2.622214	MISTER	-0.07684377
-2.622214	MORE	-0.07892672
-2.321184	MORNING	-0.04881506
-2.622214	MORROW	-0.07892672
-2.321184	MOST	-0.07788651
-2.622214	MUST	-0.07264765
-2.321184	MY	-0.1465956
-2.321184	NEVER	-0.1476383
-2.145093	NO	-0.07579854
-1.777116	NOT	-0.08078918
-2.622214	NOTHING	-0.07892672
-2.622214	NOW	-0.06734484
-2.622214	O'CLOCK	-0.07892672
-1.923244	OF	-0.0737005
-2.622214	OFF	-0.07159226
-2.145093	OH	-0.1189357
-2.020154	ON	-0.0737005
-2.321184	ONLY	-0.06734486
-2.622214	OPINION	-0.07892672
-2.622214	OR	-0.05872333
-2.321184	OUT	-0.0630555
-2.622214	PAUSE	-0.0684106
-2.622214	PEOPLE	-0.07475077
-2.321184	PERHAPS	-0.1284752
-2.622214	PLACIDLY	-0.06734484
-2.622214	POSITIVE	-0.07579853
-2.622214	PROMISE	-0.07475077
-2.622214	PUMP	-0.07892672
-2.622214	PUT	-0.07579853
-2.622214	QUARTER	-0.07684377
-2.622214	QUITE	-0.07892672
-2.145093	RAIN	-0.122079
-2.622214	RAINED	-0.07788649
-2.321184	RAINING	-0.06089482
-2.622214	RAINS	-0.07892672
-2.622214	RATHER	-0.07579853
-2.622214	REPLIED	-0.07684377
-2.622214	RETURN	-0.07684377
-2.622214	ROOM	-0.07579853
-2.321184	SAID	-0.07264767
-2.622214	SAY	-0.07579853
-2.321184	SHALL	-0.06947376
-2.020154	SHE	-0.0705343
-2.622214	SHORT	-0.07892672
-2.622214	SHOULD	-0.07892672
-2.622214	SIGHED	-0.07579853
-2.622214	SIGHT	-0.07475077
-2.622214	SIGNIFY	-0.06734484
-2.622214	SMALL	-0.07684377
-2.145093	SO	-0.05654095
-2.622214	SOBER	-0.07892672
-2.622214	SPECKS	-0.07475077
-2.321184	STILL	-0.07788651
-2.622214	STOOD	-0.07892672
-2.622214	STREETS	-0.07159226
-2.622214	STRUCK	-0.07579853
-2.622214	SUCH	-0.07892672
-2.321184	SUN	-0.07788651
-2.622214	SUNSHINE	-0.07579853
-2.622214	THAN	-0.07788649
-2.145093	THAT	-0.06627648
-1.391765	THE	-0.09124517
-2.622214	THEN	-0.07788649
-2.145093	THERE	-0.04881505
-2.622214	THEY	-0.07579853
-2.622214	THINK	-0.05872333
-2.622214	THIS	-0.07788649
-2.321184	THOUGH	-0.1423995
-2.622214	THOUGHT	-0.07788649
-2.622214	THREATENING	-0.07579853
-2.622214	TILL	-0.06947374
-2.622214	TIME	-0.07475077
-1.777116	TO	-0.0499272
-2.622214	TODAY	-0.07892672
-2.622214	TONE	-0.0684106
-2.020154	TWELVE	-0.09111058
-2.622214	TWENTY	-0.07684377
-2.622214	UDOLPHO	-0.0684106
-2.622214	UMBRELLA	-0.0684106
-2.622214	UMBRELLAS	-0.07370049
-1.844063	UP	-0.04881504
-2.622214	UPON	-0.06197649
-1.923244	VERY	-0.07159226
-2.321184	WALK	-0.07475079
-2.622214	WAS	-0.07892672
-2.622214	WATCHFUL	-0.07892672
-2.622214	WATCHING	-0.07684377
-2.622214	WE	-0.07579853
-2.622214	WEATHER	-0.07892672
-2.622214	WENT	-0.07892672
-2.321184	WET	-0.07579855
-2.622214	WHEN	-0.07579853
-1.719124	WILL	-0.3830321
-2.622214	WINDOW	-0.07684377
-2.622214	WINDOWS	-0.07892672
-2.622214	WISHES	-0.0684106
-2.622214	WONDER	-0.07579853
-2.321184	WORLD	-0.0737005
-2.145093	WOULD	-0.06734485
-2.622214	YET	-0.06734484
-2.321184	YOU	-0.06947376

\2-grams:
-1.815649	<s> AT
-1.815649	<s> CHAPTER
-1.815649	<s> DECLINED
-1.815649	<s> I
-1.275588	<s> IT
-1.236138	<s> THE	-0.4619613
-1.815649	<s> THERE
-1.815649	<s> THIS
-1.234195	A FEW
-1.774256	A GREATCOAT
-1.774256	A LITTLE
-1.774256	A MOST
-1.774256	A QUARTER
-1.774256	A SHORT
-1.234195	A VERY
-1.774256	A WINDOW
-0.7742562	ABLE TO
-0.7742562	ABOUT ELEVEN
-0.7742562	ABSOLUTE PROMISE
-1.251377	AFTER A
-0.7113163	AFTER TWELVE
-0.7742562	ALL THE
-1.251377	ALLEN AND
-1.251377	ALLEN NO
-1.251377	ALLEN WILL
-0.7742562	ALLEN'S OPINION
-0.7742562	ALREADY HOW
-0.7742562	AN UMBRELLA
-1.677346	AND CATHERINE
-1.677346	AND FASTER
-1.677346	AND I
-1.677346	AND IT
-1.677346	AND MISSUS
-1.677346	AND NOW
-1.677346	AND OH
-1.677346	AND THE
-0.7742562	ANOTHER FIVE
-0.7742562	ANY ABSOLUTE
-0.7742562	ANYTHING IN
-0.7742562	APPEAR AND
-0.7742562	APPLIED TO
-0.7742562	ARE FOUR
-1.251377	AS HOPELESS
-1.251377	AS SHE
-1.251377	AS THEY
-1.251377	AT A
-1.251377	AT ABOUT
-1.251377	AT UDOLPHO
-0.7742562	AUGURED FROM
-1.619354	BE ABLE
-1.619354	BE SAID
-1.079293	BE SO
-1.079293	BE VERY
-1.619354	BE WET
-0.7742562	BEFORE TWELVE
-0.7742562	BEING A
-0.7742562	BELIEVE IT
-0.7742562	BROKE FROM
-0.7742562	BROUGHT A
-1.251377	BUT I
-1.251377	BUT PERHAPS
-1.251377	BUT THEN
-1.376316	CATHERINE AS
-1.376316	CATHERINE AUGURED
-1.376316	CATHERINE BUT
-1.376316	CATHERINE WENT
-0.7742562	CATHERINE'S WATCHFUL
-0.7742562	CAUGHT CATHERINE'S
-0.7742562	CHAPTER ELEVEN
-0.7742562	CLEAR UP
-1.075286	CLOCK STRUCK
-1.075286	CLOCK THREATENING
-0.7742562	CLOUDS WOULD
-0.7742562	COME TO
-0.7742562	COMES ON
-0.7742562	COMFORTABLE </s>
-0.535225	CONTINUED FAST	-0.327405
-0.7742562	DARE SAY
-1.075286	DAY FOR
-1.075286	DAY IF
-1.251377	DEAR </s>
-0.7113163	DEAR I	-0.4533704
-0.7742562	DECLINED GIVING
-0.7742562	DESPAIR YET
-0.7742562	DESPONDING TONE
-1.075286	DIRT AFTER
-1.075286	DIRT NO
-0.7742562	DIRTY OH
-0.7742562	DISLIKE IT
-1.376316	DO ANYTHING
-1.376316	DO BELIEVE
-1.376316	DO NOT
-1.376316	DO THINK
-0.7742562	DOES INDEED
-0.7742562	DOUBT IN
-0.7742562	EACH RETURN
-0.7742562	EFFORTS TO
-1.075286	ELEVEN O'CLOCK
-1.075286	ELEVEN THE
-0.7742562	ENTIRELY OH
-0.7742562	EVERY FIVE
-0.7742562	EVERYTHING MOST
-0.7742562	EYE AND
-0.535225	FAST THOUGH	-0.327405
-1.075286	FASTER AND
-1.075286	FASTER SAID
-0.7742562	FAVOURABLE TO
-1.251377	FEW EFFORTS
-1.251377	FEW PEOPLE
-1.251377	FEW SPECKS
-0.7742562	FINE DAY
-0.535225	FIVE MINUTES
-1.251377	FOR HE
-1.251377	FOR IT
-1.251377	FOR ME
-0.7742562	FOUR UMBRELLAS
-0.7742562	FRIEND VERY
-1.075286	FROM HER
-1.075286	FROM IT
-0.7113163	GIVE IT	-0.4642693
-1.251377	GIVE UP
-0.7742562	GIVING ANY
-1.075286	GO MY
-1.075286	GO OFF
-0.7742562	GOES BUT
-1.075286	GREATCOAT I
-1.075286	GREATCOAT WHEN
-1.376316	HAD AT
-1.376316	HAD NO
-1.376316	HAD RATHER
-1.376316	HAD SUCH
-0.7742562	HATE THE
-1.376316	HE GOES
-1.376316	HE HAD
-1.376316	HE SHOULD
-1.376316	HE WILL
-1.075286	HEAVY </s>
-1.075286	HEAVY CATHERINE
-1.251377	HER FRIEND
-1.251377	HER IN
-1.251377	HER WISHES
-0.7742562	HERE AS
-0.7742562	HIS GREATCOAT
-0.7742562	HOLD UP
-0.7742562	HOPE MISTER
-0.7742562	HOPELESS </s>
-1.075286	HOW I
-1.075286	HOW IT
-0.7742562	HOWEVER A
-1.853437	I DARE
-1.273926	I DO
-1.853437	I HATE
-1.853437	I HOPE
-1.853437	I KNOW
-1.853437	I NEVER
-1.313376	I SHALL
-1.853437	I THOUGHT
-1.853437	I WONDER
-0.7968048	IF IT
-1.376316	IF THE
-0.933165	IN A
-0.8937148	IN THE	-0.4619613
-0.7742562	INDEED IF
-1.075286	IS JUST
-1.075286	IS TWENTY
-2.075286	IT COMES
-2.075286	IT DOES
-2.075286	IT EVERYTHING
-2.075286	IT IS
-2.075286	IT IT
-2.075286	IT KEEPS
-2.075286	IT LOOKS
-1.495775	IT MAY
-2.075286	IT MUST
-2.075286	IT RAINS
-1.535225	IT STILL
-2.075286	IT TO
-1.535225	IT UP
-1.535225	IT WILL	-0.1760913
-2.075286	IT WOULD
-0.7742562	ITS BEING
-0.7742562	JUST THE
-0.7742562	KEEP OUT
-0.7742562	KEEPS RAINING
-0.7742562	KEPT ON
-0.7742562	KNOW YOU
-0.7742562	LIGHTER THERE
-0.7742562	LITTLE LIGHTER
-0.7742562	LOOKING MORNING
-0.7742562	LOOKS A
-0.7742562	MAKING ONLY
-0.7742562	MATTER AS
-1.251377	MAY BUT
-1.251377	MAY COME
-1.251377	MAY HOLD
-0.7742562	ME TODAY
-0.535225	MIND DIRT
-1.251377	MINUTES AFTER
-1.251377	MINUTES SHE
-1.251377	MINUTES TO
-0.7113163	MISSUS ALLEN
-1.251377	MISSUS ALLEN'S
-0.7742562	MISTER ALLEN
-0.7742562	MORE POSITIVE
-1.075286	MORNING I
-1.075286	MORNING THE
-0.7742562	MORROW BROUGHT
-1.075286	MOST DESPONDING
-1.075286	MOST FAVOURABLE
-0.7742562	MUST BE
-0.535225	MY DEAR
-0.535225	NEVER MIND	-0.327405
-1.251377	NO DOUBT
-1.251377	NO REPLIED
-1.251377	NO WALK
-1.619354	NOT BE
-1.619354	NOT FOR
-1.619354	NOT GIVE
-1.079293	NOT HEAVY
-1.619354	NOT QUITE
-1.619354	NOT SIGNIFY
-0.7742562	NOTHING OR
-0.7742562	NOW I
-0.7742562	O'CLOCK HOWEVER
-1.473226	OF AN
-1.473226	OF DAY
-1.473226	OF ITS
-1.473226	OF SMALL
-1.473226	OF SUNSHINE
-0.7742562	OFF AND
-1.251377	OH DEAR
-0.7113163	OH THAT
-1.376316	ON EACH
-1.376316	ON FASTER
-1.376316	ON HIS
-1.376316	ON RAINING
-1.075286	ONLY A
-1.075286	ONLY GO
-0.7742562	OPINION WAS
-0.7742562	OR IT
-1.075286	OUT </s>
-1.075286	OUT IN
-0.7742562	PAUSE </s>
-0.7742562	PEOPLE IN
-0.535225	PERHAPS IT	-0.4630271
-0.7742562	PLACIDLY I
-0.7742562	POSITIVE SHE
-0.7742562	PROMISE OF
-0.7742562	PUMP ROOM
-0.7742562	PUT ON
-0.7742562	QUARTER AFTER
-0.7742562	QUITE DESPAIR
-0.7113163	RAIN CONTINUED	-0.327405
-1.251377	RAIN UPON
-0.7742562	RAINED YOU
-1.075286	RAINING ANOTHER
-1.075286	RAINING THE
-0.7742562	RAINS ALL
-0.7742562	RATHER DO
-0.7742562	REPLIED HER
-0.7742562	RETURN THAT
-0.7742562	ROOM IF
-1.075286	SAID CATHERINE
-1.075286	SAID MISSUS
-0.7742562	SAY HE
-1.075286	SHALL GIVE
-1.075286	SHALL NOT
-1.376316	SHE APPLIED
-1.376316	SHE HAD
-1.376316	SHE STOOD
-1.376316	SHE WOULD
-0.7742562	SHORT PAUSE
-0.7742562	SHOULD DISLIKE
-0.7742562	SIGHED CATHERINE
-0.7742562	SIGHT OF
-0.7742562	SIGNIFY I
-0.7742562	SMALL RAIN
-1.251377	SO COMFORTABLE
-1.251377	SO DIRTY
-1.251377	SO IT
-0.7742562	SOBER LOOKING
-0.7742562	SPECKS OF
-1.075286	STILL KEPT
-1.075286	STILL RAINED
-0.7742562	STOOD WATCHING
-0.7742562	STREETS WILL
-0.7742562	STRUCK TWELVE
-0.7742562	SUCH WEATHER
-1.075286	SUN KEEP
-1.075286	SUN MAKING
-0.7742562	SUNSHINE SHE
-0.7742562	THAN WALK
-1.251377	THAT IF
-1.251377	THAT WE
-1.251377	THAT WILL
-1.464644	THE CLOCK
-2.004705	THE CLOUDS
-2.004705	THE MATTER
-2.004705	THE MORNING
-2.004705	THE MORROW
-2.004705	THE PUMP
-1.464644	THE RAIN	-0.3832437
-2.004705	THE SIGHT
-2.004705	THE STREETS
-1.464644	THE SUN
-2.004705	THE TIME
-2.004705	THE WINDOWS
-1.464644	THE WORLD
-0.7742562	THEN MY
-1.251377	THERE ARE
-1.251377	THERE IT
-1.251377	THERE WILL
-0.7742562	THEY HAD
-0.7742562	THINK IT
-0.7742562	THIS IS
-0.535225	THOUGH NOT	-0.4393429
-0.7742562	THOUGHT HOW
-0.7742562	THREATENING ON
-0.7742562	TILL A
-0.7742562	TIME OF
-1.619354	TO APPEAR
-1.619354	TO CLEAR
-1.619354	TO GO
-1.619354	TO HER
-1.619354	TO MISSUS
-1.619354	TO NOTHING
-1.619354	TO THE
-0.7742562	TODAY SIGHED
-0.7742562	TONE </s>
-1.376316	TWELVE </s>
-0.836255	TWELVE AND
-1.376316	TWELVE PERHAPS
-0.7742562	TWENTY MINUTES
-0.7742562	UDOLPHO </s>
-0.7742562	UMBRELLA </s>
-0.7742562	UMBRELLAS UP
-1.552408	UP ALREADY
-1.552408	UP AND
-1.552408	UP BEFORE
-1.552408	UP ENTIRELY
-1.552408	UP THE
-1.552408	UP TILL
-0.7742562	UPON THE
-1.473226	VERY FEW
-1.473226	VERY FINE
-1.473226	VERY PLACIDLY
-1.473226	VERY SOBER
-1.473226	VERY WET
-1.075286	WALK FOR
-1.075286	WALK OUT
-0.7742562	WAS MORE
-0.7742562	WATCHFUL EYE
-0.7742562	WATCHING AT
-0.7742562	WE HAD
-0.7742562	WEATHER HERE
-0.7742562	WENT EVERY
-1.075286	WET BROKE
-1.075286	WET THERE
-0.7742562	WHEN HE
-0.30103	WILL BE	-0.2632516
-1.097835	WILL NOT
-1.677346	WILL PUT
-0.7742562	WINDOW SO
-0.7742562	WINDOWS CAUGHT
-0.7742562	WISHES </s>
-0.7742562	WONDER HE
-1.075286	WORLD OF
-1.075286	WORLD THAN
-1.251377	WOULD BE
-1.251377	WOULD GIVE
-1.251377	WOULD ONLY
-0.7742562	YET I
-1.075286	YOU NEVER
-1.075286	YOU WILL

\3-grams:
-0.30103	WILL BE VERY
-0.1760913	RAIN CONTINUED FAST
-0.1760913	CONTINUED FAST THOUGH
-0.1760913	DEAR I DO
-0.1760913	GIVE IT UP
-0.1760913	PERHAPS IT MAY
-0.1760913	NEVER MIND DIRT
-0.1760913	THOUGH NOT HEAVY
-0.1760913	THE RAIN CONTINUED
-0.1760913	<s> THE RAIN
-0.1760913	IN THE WORLD
-0.1760913	FAST THOUGH NOT
-0.1760913	IT WILL BE

\end\
